/* Organism #1 Fitness: 0.823500 Time: 0 */
genomestart 1
trait 1 0.000000 0.000000 0.000000 0.005714 0.449974 0.000000 0.000000 0.000000 
node 1 1 1 1
node 2 1 1 1
node 3 1 1 1
node 4 1 1 1
node 5 1 1 1
node 6 1 1 1
node 7 1 1 1
node 8 1 1 1
node 9 1 1 1
node 10 1 1 1
node 11 1 1 1
node 12 1 1 1
node 13 1 1 1
node 14 1 1 1
node 15 1 1 1
node 16 1 1 1
node 17 1 1 1
node 18 1 1 1
node 19 1 1 1
node 20 1 1 1
node 21 1 1 1
node 22 1 1 1
node 23 1 1 1
node 24 1 1 1
node 25 1 1 3
node 26 1 0 2
node 27 1 0 2
gene 1 1 26 -1.22322 0 1 -1.22322 1
gene 1 1 27 -2.10638 0 2 -2.10638 1
gene 1 2 26 -3.82984 0 3 -3.82984 1
gene 1 2 27 1.45094 0 4 1.45094 1
gene 1 3 26 0.128982 0 5 0.128982 1
gene 1 3 27 0.534442 0 6 0.534442 1
gene 1 4 26 1.3103 0 7 1.3103 1
gene 1 4 27 0.16946 0 8 0.16946 1
gene 1 5 26 1.44341 0 9 1.44341 1
gene 1 5 27 -0.588835 0 10 -0.588835 1
gene 1 6 26 1.87423 0 11 1.87423 1
gene 1 6 27 -2.18343 0 12 -2.18343 1
gene 1 7 26 0.119093 0 13 0.119093 1
gene 1 7 27 -2.85199 0 14 -2.85199 1
gene 1 8 26 0.190964 0 15 0.190964 1
gene 1 8 27 -5.62295 0 16 -5.62295 1
gene 1 9 26 -0.277595 0 17 -0.277595 1
gene 1 9 27 0.974764 0 18 0.974764 1
gene 1 10 26 -4.73274 0 19 -4.73274 1
gene 1 10 27 -1.8205 0 20 -1.8205 1
gene 1 11 26 -0.550584 0 21 -0.550584 1
gene 1 11 27 -2.63811 0 22 -2.63811 1
gene 1 12 26 1.63734 0 23 1.63734 1
gene 1 12 27 0.163027 0 24 0.163027 1
gene 1 13 26 -0.695984 0 25 -0.695984 1
gene 1 13 27 3.23155 0 26 3.23155 1
gene 1 14 26 3.85644 0 27 3.85644 1
gene 1 14 27 -2.4527 0 28 -2.4527 1
gene 1 15 26 3.79765 0 29 3.79765 1
gene 1 15 27 0.705408 0 30 0.705408 1
gene 1 16 26 -0.0587946 0 31 -0.0587946 1
gene 1 16 27 1.18388 0 32 1.18388 1
gene 1 17 26 1.80373 0 33 1.80373 1
gene 1 17 27 -3.69265 0 34 -3.69265 1
gene 1 18 26 -0.565996 0 35 -0.565996 1
gene 1 18 27 0.999195 0 36 0.999195 1
gene 1 19 26 -2.84876 0 37 -2.84876 1
gene 1 19 27 2.57194 0 38 2.57194 1
gene 1 20 26 1.15034 0 39 1.15034 1
gene 1 20 27 -3.36592 0 40 -3.36592 1
gene 1 21 26 3.09843 0 41 3.09843 1
gene 1 21 27 1.17276 0 42 1.17276 1
gene 1 22 26 -0.973961 0 43 -0.973961 1
gene 1 22 27 1.39244 0 44 1.39244 1
gene 1 23 26 -0.531919 0 45 -0.531919 1
gene 1 23 27 -1.07813 0 46 -1.07813 1
gene 1 24 26 1.07327 0 47 1.07327 1
gene 1 24 27 1.35361 0 48 1.35361 1
gene 1 25 26 -1.07366 0 49 -1.07366 1
gene 1 25 27 -1.55084 0 50 -1.55084 1
genomeend 1


