/* Organism #1 Fitness: 0.827500 Time: 0 */
genomestart 1
trait 1 0.100000 0.000000 0.000000 0.000000 1.000000 0.136321 0.974550 0.000000 
node 1 1 1 1
node 2 1 1 1
node 3 1 1 1
node 4 1 1 1
node 5 1 1 1
node 6 1 1 1
node 7 1 1 1
node 8 1 1 1
node 9 1 1 1
node 10 1 1 1
node 11 1 1 1
node 12 1 1 1
node 13 1 1 1
node 14 1 1 1
node 15 1 1 1
node 16 1 1 1
node 17 1 1 1
node 18 1 1 1
node 19 1 1 1
node 20 1 1 1
node 21 1 1 1
node 22 1 1 1
node 23 1 1 1
node 24 1 1 1
node 25 1 1 3
node 26 1 0 2
node 27 1 0 2
gene 1 1 26 -1.5342 0 1 -1.5342 1
gene 1 1 27 -1.64932 0 2 -1.64932 1
gene 1 2 26 -0.68357 0 3 -0.68357 1
gene 1 2 27 -0.516955 0 4 -0.516955 1
gene 1 3 26 -0.00888998 0 5 -0.00888998 1
gene 1 3 27 3.58658 0 6 3.58658 1
gene 1 4 26 0.944907 0 7 0.944907 1
gene 1 4 27 -3.06669 0 8 -3.06669 1
gene 1 5 26 0.650485 0 9 0.650485 1
gene 1 5 27 1.24337 0 10 1.24337 1
gene 1 6 26 3.7412 0 11 3.7412 1
gene 1 6 27 -1.79634 0 12 -1.79634 1
gene 1 7 26 -0.0538012 0 13 -0.0538012 1
gene 1 7 27 0.528802 0 14 0.528802 1
gene 1 8 26 0.707421 0 15 0.707421 1
gene 1 8 27 0.539598 0 16 0.539598 1
gene 1 9 26 -1.89788 0 17 -1.89788 1
gene 1 9 27 0.967361 0 18 0.967361 1
gene 1 10 26 0.21712 0 19 0.21712 1
gene 1 10 27 0.425222 0 20 0.425222 1
gene 1 11 26 -2.16458 0 21 -2.16458 1
gene 1 11 27 0.681411 0 22 0.681411 1
gene 1 12 26 -0.370721 0 23 -0.370721 1
gene 1 12 27 1.28335 0 24 1.28335 1
gene 1 13 26 2.08737 0 25 2.08737 1
gene 1 13 27 1.1669 0 26 1.1669 1
gene 1 14 26 -0.992911 0 27 -0.992911 1
gene 1 14 27 -0.381431 0 28 -0.381431 1
gene 1 15 26 1.52247 0 29 1.52247 1
gene 1 15 27 -4.29768 0 30 -4.29768 1
gene 1 16 26 0.104788 0 31 0.104788 1
gene 1 16 27 2.07509 0 32 2.07509 1
gene 1 17 26 -0.563552 0 33 -0.563552 1
gene 1 17 27 -0.113987 0 34 -0.113987 1
gene 1 18 26 -0.282445 0 35 -0.282445 1
gene 1 18 27 -1.6742 0 36 -1.6742 1
gene 1 19 26 -0.861436 0 37 -0.861436 1
gene 1 19 27 -1.84391 0 38 -1.84391 1
gene 1 20 26 1.89051 0 39 1.89051 1
gene 1 20 27 -1.69807 0 40 -1.69807 1
gene 1 21 26 3.2073 0 41 3.2073 1
gene 1 21 27 0.471999 0 42 0.471999 1
gene 1 22 26 0.565999 0 43 0.565999 1
gene 1 22 27 -0.354515 0 44 -0.354515 1
gene 1 23 26 -1.05718 0 45 -1.05718 1
gene 1 23 27 -0.488212 0 46 -0.488212 1
gene 1 24 26 1.01588 0 47 1.01588 1
gene 1 24 27 0.19817 0 48 0.19817 1
gene 1 25 26 -1.78309 0 49 -1.78309 1
gene 1 25 27 -4.2912 0 50 -4.2912 1
genomeend 1


