/* Organism #71 Fitness: 0.714500 Time: 0 */
genomestart 71
trait 1 1.000000 0.591913 0.991508 0.000000 0.000000 0.540807 0.000000 1.000000 
node 1 1 1 1
node 2 1 1 1
node 3 1 1 1
node 4 1 1 1
node 5 1 1 1
node 6 1 1 1
node 7 1 1 1
node 8 1 1 1
node 9 1 1 1
node 10 1 1 1
node 11 1 1 1
node 12 1 1 1
node 13 1 1 1
node 14 1 1 1
node 15 1 1 1
node 16 1 1 1
node 17 1 1 1
node 18 1 1 1
node 19 1 1 1
node 20 1 1 1
node 21 1 1 1
node 22 1 1 1
node 23 1 1 1
node 24 1 1 1
node 25 1 1 3
node 26 1 0 2
node 27 1 0 2
gene 1 1 26 -5.45019 0 1 -5.45019 1
gene 1 1 27 -2.02509 0 2 -2.02509 1
gene 1 2 26 1.17117 0 3 1.17117 1
gene 1 2 27 3.61712 0 4 3.61712 1
gene 1 3 26 2.91837 0 5 2.91837 1
gene 1 3 27 2.00072 0 6 2.00072 1
gene 1 4 26 -1.73165 0 7 -1.73165 1
gene 1 4 27 0.453483 0 8 0.453483 1
gene 1 5 26 1.78216 0 9 1.78216 1
gene 1 5 27 5.45847 0 10 5.45847 1
gene 1 6 26 0.318793 0 11 0.318793 1
gene 1 6 27 4.72099 0 12 4.72099 1
gene 1 7 26 1.65059 0 13 1.65059 1
gene 1 7 27 1.85578 0 14 1.85578 1
gene 1 8 26 1.14095 0 15 1.14095 1
gene 1 8 27 0.939667 0 16 0.939667 1
gene 1 9 26 0.69449 0 17 0.69449 1
gene 1 9 27 3.4949 0 18 3.4949 1
gene 1 10 26 0.207534 0 19 0.207534 1
gene 1 10 27 -0.0662854 0 20 -0.0662854 1
gene 1 11 26 0.688213 0 21 0.688213 1
gene 1 11 27 0.109382 0 22 0.109382 1
gene 1 12 26 -1.3233 0 23 -1.3233 1
gene 1 12 27 -0.782325 0 24 -0.782325 1
gene 1 13 26 0.134327 0 25 0.134327 1
gene 1 13 27 -0.505897 0 26 -0.505897 1
gene 1 14 26 -0.0596615 0 27 -0.0596615 1
gene 1 14 27 0.0142898 0 28 0.0142898 1
gene 1 15 26 -2.69159 0 29 -2.69159 1
gene 1 15 27 -1.75262 0 30 -1.75262 1
gene 1 16 26 -2.71117 0 31 -2.71117 1
gene 1 16 27 -1.44186 0 32 -1.44186 1
gene 1 17 26 -2.1108 0 33 -2.1108 1
gene 1 17 27 -2.13718 0 34 -2.13718 1
gene 1 18 26 -1.72631 0 35 -1.72631 1
gene 1 18 27 -0.148398 0 36 -0.148398 1
gene 1 19 26 -0.730235 0 37 -0.730235 1
gene 1 19 27 -3.03234 0 38 -3.03234 1
gene 1 20 26 -0.869492 0 39 -0.869492 1
gene 1 20 27 4.67753 0 40 4.67753 1
gene 1 21 26 1.62315 0 41 1.62315 1
gene 1 21 27 1.13318 0 42 1.13318 1
gene 1 22 26 0.207614 0 43 0.207614 1
gene 1 22 27 0.828293 0 44 0.828293 1
gene 1 23 26 0.419244 0 45 0.419244 1
gene 1 23 27 -0.0265665 0 46 -0.0265665 1
gene 1 24 26 -2.23182 0 47 -2.23182 1
gene 1 24 27 -2.37778 0 48 -2.37778 1
gene 1 25 26 -2.72879 0 49 -2.72879 1
gene 1 25 27 -4.0447 0 50 -4.0447 1
genomeend 71


