/* Organism #2 Fitness: 0.703000 Time: 0 */
genomestart 2
trait 1 0.100000 0.252541 0.730868 0.000000 0.599047 0.000000 0.000000 0.000000 
node 1 1 1 1
node 2 1 1 1
node 3 1 1 1
node 4 1 1 1
node 5 1 1 1
node 6 1 1 1
node 7 1 1 1
node 8 1 1 1
node 9 1 1 1
node 10 1 1 1
node 11 1 1 1
node 12 1 1 1
node 13 1 1 1
node 14 1 1 1
node 15 1 1 1
node 16 1 1 1
node 17 1 1 1
node 18 1 1 1
node 19 1 1 1
node 20 1 1 1
node 21 1 1 1
node 22 1 1 1
node 23 1 1 1
node 24 1 1 1
node 25 1 1 3
node 26 1 0 2
node 27 1 0 2
gene 1 1 26 -0.0792649 0 1 -0.0792649 1
gene 1 1 27 -3.37178 0 2 -3.37178 1
gene 1 2 26 1.15652 0 3 1.15652 1
gene 1 2 27 5.75656 0 4 5.75656 1
gene 1 3 26 -1.30505 0 5 -1.30505 1
gene 1 3 27 2.44924 0 6 2.44924 1
gene 1 4 26 -0.52495 0 7 -0.52495 1
gene 1 4 27 0.316764 0 8 0.316764 1
gene 1 5 26 -1.11252 0 9 -1.11252 1
gene 1 5 27 6.40452 0 10 6.40452 1
gene 1 6 26 -2.10081 0 11 -2.10081 1
gene 1 6 27 2.55525 0 12 2.55525 1
gene 1 7 26 0.126273 0 13 0.126273 1
gene 1 7 27 -1.71179 0 14 -1.71179 1
gene 1 8 26 -0.121673 0 15 -0.121673 1
gene 1 8 27 -0.484404 0 16 -0.484404 1
gene 1 9 26 -0.948594 0 17 -0.948594 1
gene 1 9 27 1.2784 0 18 1.2784 1
gene 1 10 26 -2.33173 0 19 -2.33173 1
gene 1 10 27 -0.0973908 0 20 -0.0973908 1
gene 1 11 26 0.337591 0 21 0.337591 1
gene 1 11 27 -1.03767 0 22 -1.03767 1
gene 1 12 26 0.882681 0 23 0.882681 1
gene 1 12 27 -2.52884 0 24 -2.52884 1
gene 1 13 26 0.0390832 0 25 0.0390832 1
gene 1 13 27 -2.14044 0 26 -2.14044 1
gene 1 14 26 -0.979356 0 27 -0.979356 1
gene 1 14 27 -2.08443 0 28 -2.08443 1
gene 1 15 26 -1.50584 0 29 -1.50584 1
gene 1 15 27 -2.21911 0 30 -2.21911 1
gene 1 16 26 2.32979 0 31 2.32979 1
gene 1 16 27 -0.835928 0 32 -0.835928 1
gene 1 17 26 0.725098 0 33 0.725098 1
gene 1 17 27 0.713887 0 34 0.713887 1
gene 1 18 26 1.03958 0 35 1.03958 1
gene 1 18 27 -3.41472 0 36 -3.41472 1
gene 1 19 26 -0.90894 0 37 -0.90894 1
gene 1 19 27 -4.70936 0 38 -4.70936 1
gene 1 20 26 -3.31387 0 39 -3.31387 1
gene 1 20 27 3.33564 0 40 3.33564 1
gene 1 21 26 -2.5864 0 41 -2.5864 1
gene 1 21 27 -1.22583 0 42 -1.22583 1
gene 1 22 26 -0.25268 0 43 -0.25268 1
gene 1 22 27 0.416894 0 44 0.416894 1
gene 1 23 26 -0.597117 0 45 -0.597117 1
gene 1 23 27 0.47483 0 46 0.47483 1
gene 1 24 26 -0.0819421 0 47 -0.0819421 1
gene 1 24 27 0.0347544 0 48 0.0347544 1
gene 1 25 26 -0.195128 0 49 -0.195128 1
gene 1 25 27 -3.0071 0 50 -3.0071 1
genomeend 2


