/* Organism #3 Fitness: 0.747000 Time: 0 */
genomestart 3
trait 1 0.100000 0.188216 0.000000 0.000000 0.000000 0.445516 0.000000 0.000000 
node 1 1 1 1
node 2 1 1 1
node 3 1 1 1
node 4 1 1 1
node 5 1 1 1
node 6 1 1 1
node 7 1 1 1
node 8 1 1 1
node 9 1 1 1
node 10 1 1 1
node 11 1 1 1
node 12 1 1 1
node 13 1 1 1
node 14 1 1 1
node 15 1 1 1
node 16 1 1 1
node 17 1 1 1
node 18 1 1 1
node 19 1 1 1
node 20 1 1 1
node 21 1 1 1
node 22 1 1 1
node 23 1 1 1
node 24 1 1 1
node 25 1 1 3
node 26 1 0 2
node 27 1 0 2
gene 1 1 26 -2.45032 0 1 -2.45032 1
gene 1 1 27 1.05028 0 2 1.05028 1
gene 1 2 26 4.12196 0 3 4.12196 1
gene 1 2 27 0.695543 0 4 0.695543 1
gene 1 3 26 -0.286064 0 5 -0.286064 1
gene 1 3 27 -3.15178 0 6 -3.15178 1
gene 1 4 26 3.423 0 7 3.423 1
gene 1 4 27 -0.660353 0 8 -0.660353 1
gene 1 5 26 -1.00468 0 9 -1.00468 1
gene 1 5 27 -2.35354 0 10 -2.35354 1
gene 1 6 26 3.46125 0 11 3.46125 1
gene 1 6 27 -2.05968 0 12 -2.05968 1
gene 1 7 26 3.029 0 13 3.029 1
gene 1 7 27 -0.83479 0 14 -0.83479 1
gene 1 8 26 -1.75252 0 15 -1.75252 1
gene 1 8 27 -1.29998 0 16 -1.29998 1
gene 1 9 26 2.03474 0 17 2.03474 1
gene 1 9 27 1.44865 0 18 1.44865 1
gene 1 10 26 4.55921 0 19 4.55921 1
gene 1 10 27 1.91912 0 20 1.91912 1
gene 1 11 26 2.03646 0 21 2.03646 1
gene 1 11 27 -0.183668 0 22 -0.183668 1
gene 1 12 26 1.78959 0 23 1.78959 1
gene 1 12 27 0.340223 0 24 0.340223 1
gene 1 13 26 -1.57689 0 25 -1.57689 1
gene 1 13 27 1.18366 0 26 1.18366 1
gene 1 14 26 -3.09295 0 27 -3.09295 1
gene 1 14 27 -4.98434 0 28 -4.98434 1
gene 1 15 26 -4.63635 0 29 -4.63635 1
gene 1 15 27 -0.00225341 0 30 -0.00225341 1
gene 1 16 26 -1.77127 0 31 -1.77127 1
gene 1 16 27 1.52864 0 32 1.52864 1
gene 1 17 26 -0.709607 0 33 -0.709607 1
gene 1 17 27 -0.492769 0 34 -0.492769 1
gene 1 18 26 -3.90193 0 35 -3.90193 1
gene 1 18 27 -2.15761 0 36 -2.15761 1
gene 1 19 26 2.15719 0 37 2.15719 1
gene 1 19 27 0.896851 0 38 0.896851 1
gene 1 20 26 3.57519 0 39 3.57519 1
gene 1 20 27 -2.98526 0 40 -2.98526 1
gene 1 21 26 2.38546 0 41 2.38546 1
gene 1 21 27 0.90133 0 42 0.90133 1
gene 1 22 26 1.44599 0 43 1.44599 1
gene 1 22 27 1.76293 0 44 1.76293 1
gene 1 23 26 0.0922563 0 45 0.0922563 1
gene 1 23 27 0.658034 0 46 0.658034 1
gene 1 24 26 0.626356 0 47 0.626356 1
gene 1 24 27 1.48464 0 48 1.48464 1
gene 1 25 26 -3.38738 0 49 -3.38738 1
gene 1 25 27 -0.122138 0 50 -0.122138 1
genomeend 3


