/* Organism #3 Fitness: 0.684000 Time: 0 */
genomestart 3
trait 1 0.100000 0.000000 0.000000 0.000000 0.000000 0.000000 0.000000 0.000000 
node 1 1 1 1
node 2 1 1 1
node 3 1 1 1
node 4 1 1 1
node 5 1 1 1
node 6 1 1 1
node 7 1 1 1
node 8 1 1 1
node 9 1 1 1
node 10 1 1 1
node 11 1 1 1
node 12 1 1 1
node 13 1 1 1
node 14 1 1 1
node 15 1 1 1
node 16 1 1 1
node 17 1 1 1
node 18 1 1 1
node 19 1 1 1
node 20 1 1 1
node 21 1 1 1
node 22 1 1 1
node 23 1 1 1
node 24 1 1 1
node 25 1 1 3
node 26 1 0 2
node 27 1 0 2
gene 1 1 26 -0.843027 0 1 -0.843027 1
gene 1 1 27 0.879167 0 2 0.879167 1
gene 1 2 26 -0.562253 0 3 -0.562253 1
gene 1 2 27 -1.2809 0 4 -1.2809 1
gene 1 3 26 5.55522 0 5 5.55522 1
gene 1 3 27 0.745142 0 6 0.745142 1
gene 1 4 26 2.09994 0 7 2.09994 1
gene 1 4 27 1.1963 0 8 1.1963 1
gene 1 5 26 0.805684 0 9 0.805684 1
gene 1 5 27 0.154489 0 10 0.154489 1
gene 1 6 26 0.535697 0 11 0.535697 1
gene 1 6 27 0.246568 0 12 0.246568 1
gene 1 7 26 -0.119025 0 13 -0.119025 1
gene 1 7 27 -0.917217 0 14 -0.917217 1
gene 1 8 26 -0.88975 0 15 -0.88975 1
gene 1 8 27 -1.45325 0 16 -1.45325 1
gene 1 9 26 1.85428 0 17 1.85428 1
gene 1 9 27 -1.54988 0 18 -1.54988 1
gene 1 10 26 -0.440743 0 19 -0.440743 1
gene 1 10 27 -4.49444 0 20 -4.49444 1
gene 1 11 26 0.808354 0 21 0.808354 1
gene 1 11 27 0.9226 0 22 0.9226 1
gene 1 12 26 0.0187242 0 23 0.0187242 1
gene 1 12 27 -0.0370844 0 24 -0.0370844 1
gene 1 13 26 2.16963 0 25 2.16963 1
gene 1 13 27 0.95439 0 26 0.95439 1
gene 1 14 26 -0.217704 0 27 -0.217704 1
gene 1 14 27 -0.995041 0 28 -0.995041 1
gene 1 15 26 0.116469 0 29 0.116469 1
gene 1 15 27 1.12313 0 30 1.12313 1
gene 1 16 26 -0.200247 0 31 -0.200247 1
gene 1 16 27 -0.775052 0 32 -0.775052 1
gene 1 17 26 -0.417767 0 33 -0.417767 1
gene 1 17 27 -1.17105 0 34 -1.17105 1
gene 1 18 26 -2.50769 0 35 -2.50769 1
gene 1 18 27 -0.822969 0 36 -0.822969 1
gene 1 19 26 -0.346779 0 37 -0.346779 1
gene 1 19 27 -0.253922 0 38 -0.253922 1
gene 1 20 26 1.05303 0 39 1.05303 1
gene 1 20 27 0.622471 0 40 0.622471 1
gene 1 21 26 -0.3763 0 41 -0.3763 1
gene 1 21 27 0.761541 0 42 0.761541 1
gene 1 22 26 -0.619214 0 43 -0.619214 1
gene 1 22 27 0.913098 0 44 0.913098 1
gene 1 23 26 -2.74971 0 45 -2.74971 1
gene 1 23 27 0.247026 0 46 0.247026 1
gene 1 24 26 0.419145 0 47 0.419145 1
gene 1 24 27 1.31666 0 48 1.31666 1
gene 1 25 26 -0.104368 0 49 -0.104368 1
gene 1 25 27 -1.11459 0 50 -1.11459 1
genomeend 3


