/* Organism #0 Fitness: 0.766000 Time: 0 */
genomestart 0
trait 1 0.828429 0.000000 1.000000 0.834340 0.000000 0.431046 0.573297 0.000000 
node 1 1 1 1
node 2 1 1 1
node 3 1 1 1
node 4 1 1 1
node 5 1 1 1
node 6 1 1 1
node 7 1 1 1
node 8 1 1 1
node 9 1 1 1
node 10 1 1 1
node 11 1 1 1
node 12 1 1 1
node 13 1 1 1
node 14 1 1 1
node 15 1 1 1
node 16 1 1 1
node 17 1 1 1
node 18 1 1 1
node 19 1 1 1
node 20 1 1 1
node 21 1 1 1
node 22 1 1 1
node 23 1 1 1
node 24 1 1 1
node 25 1 1 3
node 26 1 0 2
node 27 1 0 2
gene 1 1 26 -2.08915 0 1 -2.08915 1
gene 1 1 27 -0.847448 0 2 -0.847448 1
gene 1 2 26 0.876833 0 3 0.876833 1
gene 1 2 27 -0.228473 0 4 -0.228473 1
gene 1 3 26 0.0639546 0 5 0.0639546 1
gene 1 3 27 0.217058 0 6 0.217058 1
gene 1 4 26 0.860499 0 7 0.860499 1
gene 1 4 27 0.20941 0 8 0.20941 1
gene 1 5 26 2.9108 0 9 2.9108 1
gene 1 5 27 -1.25044 0 10 -1.25044 1
gene 1 6 26 0.402161 0 11 0.402161 1
gene 1 6 27 0.775021 0 12 0.775021 1
gene 1 7 26 0.401667 0 13 0.401667 1
gene 1 7 27 0.532462 0 14 0.532462 1
gene 1 8 26 -0.106921 0 15 -0.106921 1
gene 1 8 27 -2.17971 0 16 -2.17971 1
gene 1 9 26 0.306746 0 17 0.306746 1
gene 1 9 27 0.905163 0 18 0.905163 1
gene 1 10 26 1.70127 0 19 1.70127 1
gene 1 10 27 -0.484596 0 20 -0.484596 1
gene 1 11 26 -1.01915 0 21 -1.01915 1
gene 1 11 27 -1.73876 0 22 -1.73876 1
gene 1 12 26 -1.388 0 23 -1.388 1
gene 1 12 27 -0.728696 0 24 -0.728696 1
gene 1 13 26 -2.85095 0 25 -2.85095 1
gene 1 13 27 1.09139 0 26 1.09139 1
gene 1 14 26 -0.476419 0 27 -0.476419 1
gene 1 14 27 0.966252 0 28 0.966252 1
gene 1 15 26 0.245132 0 29 0.245132 1
gene 1 15 27 -3.48883 0 30 -3.48883 1
gene 1 16 26 -1.15107 0 31 -1.15107 1
gene 1 16 27 -0.508524 0 32 -0.508524 1
gene 1 17 26 -3.74029 0 33 -3.74029 1
gene 1 17 27 -2.34888 0 34 -2.34888 1
gene 1 18 26 0.380529 0 35 0.380529 1
gene 1 18 27 -1.07911 0 36 -1.07911 1
gene 1 19 26 0.872861 0 37 0.872861 1
gene 1 19 27 -6.39081 0 38 -6.39081 1
gene 1 20 26 2.53344 0 39 2.53344 1
gene 1 20 27 -0.325007 0 40 -0.325007 1
gene 1 21 26 2.55776 0 41 2.55776 1
gene 1 21 27 1.41139 0 42 1.41139 1
gene 1 22 26 -0.79605 0 43 -0.79605 1
gene 1 22 27 -0.148498 0 44 -0.148498 1
gene 1 23 26 -0.961128 0 45 -0.961128 1
gene 1 23 27 -0.754437 0 46 -0.754437 1
gene 1 24 26 -0.830463 0 47 -0.830463 1
gene 1 24 27 -2.65821 0 48 -2.65821 1
gene 1 25 26 -2.03908 0 49 -2.03908 1
gene 1 25 27 -1.06697 0 50 -1.06697 1
genomeend 0


