/* Organism #0 Fitness: 0.883500 Time: 0 */
genomestart 0
trait 1 0.000000 0.000000 0.000000 0.000000 0.000000 0.350952 0.056243 0.941049 
node 1 1 1 1
node 2 1 1 1
node 3 1 1 1
node 4 1 1 1
node 5 1 1 1
node 6 1 1 1
node 7 1 1 1
node 8 1 1 1
node 9 1 1 1
node 10 1 1 1
node 11 1 1 1
node 12 1 1 1
node 13 1 1 1
node 14 1 1 1
node 15 1 1 1
node 16 1 1 1
node 17 1 1 1
node 18 1 1 1
node 19 1 1 1
node 20 1 1 1
node 21 1 1 1
node 22 1 1 1
node 23 1 1 1
node 24 1 1 1
node 25 1 1 3
node 26 1 0 2
node 27 1 0 2
gene 1 1 26 -1.03553 0 1 -1.03553 1
gene 1 1 27 -2.63971 0 2 -2.63971 1
gene 1 2 26 -0.99944 0 3 -0.99944 1
gene 1 2 27 -0.844739 0 4 -0.844739 1
gene 1 3 26 0.052142 0 5 0.052142 1
gene 1 3 27 0.116043 0 6 0.116043 1
gene 1 4 26 -0.0691731 0 7 -0.0691731 1
gene 1 4 27 2.34989 0 8 2.34989 1
gene 1 5 26 1.02328 0 9 1.02328 1
gene 1 5 27 0.287678 0 10 0.287678 1
gene 1 6 26 1.37433 0 11 1.37433 1
gene 1 6 27 -0.306575 0 12 -0.306575 1
gene 1 7 26 0.73589 0 13 0.73589 1
gene 1 7 27 -2.27037 0 14 -2.27037 1
gene 1 8 26 -3.17429 0 15 -3.17429 1
gene 1 8 27 -0.403125 0 16 -0.403125 1
gene 1 9 26 -3.90492 0 17 -3.90492 1
gene 1 9 27 -0.191675 0 18 -0.191675 1
gene 1 10 26 -3.76514 0 19 -3.76514 1
gene 1 10 27 -0.469919 0 20 -0.469919 1
gene 1 11 26 1.80479 0 21 1.80479 1
gene 1 11 27 0.803808 0 22 0.803808 1
gene 1 12 26 -0.0213011 0 23 -0.0213011 1
gene 1 12 27 1.09253 0 24 1.09253 1
gene 1 13 26 1.67929 0 25 1.67929 1
gene 1 13 27 -1.72615 0 26 -1.72615 1
gene 1 14 26 -1.01127 0 27 -1.01127 1
gene 1 14 27 -2.81721 0 28 -2.81721 1
gene 1 15 26 0.30088 0 29 0.30088 1
gene 1 15 27 0.220268 0 30 0.220268 1
gene 1 16 26 0.504117 0 31 0.504117 1
gene 1 16 27 1.21547 0 32 1.21547 1
gene 1 17 26 0.32893 0 33 0.32893 1
gene 1 17 27 -0.360079 0 34 -0.360079 1
gene 1 18 26 -2.30713 0 35 -2.30713 1
gene 1 18 27 -0.403571 0 36 -0.403571 1
gene 1 19 26 -2.2372 0 37 -2.2372 1
gene 1 19 27 -0.749348 0 38 -0.749348 1
gene 1 20 26 -0.266612 0 39 -0.266612 1
gene 1 20 27 1.43342 0 40 1.43342 1
gene 1 21 26 -3.04088 0 41 -3.04088 1
gene 1 21 27 3.16548 0 42 3.16548 1
gene 1 22 26 -0.144699 0 43 -0.144699 1
gene 1 22 27 -0.482207 0 44 -0.482207 1
gene 1 23 26 1.19084 0 45 1.19084 1
gene 1 23 27 1.30104 0 46 1.30104 1
gene 1 24 26 0.912714 0 47 0.912714 1
gene 1 24 27 1.15272 0 48 1.15272 1
gene 1 25 26 -1.99235 0 49 -1.99235 1
gene 1 25 27 -1.25254 0 50 -1.25254 1
genomeend 0


