/* Organism #0 Fitness: 0.731500 Time: 0 */
genomestart 0
trait 1 0.000000 0.000000 0.314117 0.000000 0.427366 0.417857 1.000000 0.000000 
node 1 1 1 1
node 2 1 1 1
node 3 1 1 1
node 4 1 1 1
node 5 1 1 1
node 6 1 1 1
node 7 1 1 1
node 8 1 1 1
node 9 1 1 1
node 10 1 1 1
node 11 1 1 1
node 12 1 1 1
node 13 1 1 1
node 14 1 1 1
node 15 1 1 1
node 16 1 1 1
node 17 1 1 1
node 18 1 1 1
node 19 1 1 1
node 20 1 1 1
node 21 1 1 1
node 22 1 1 1
node 23 1 1 1
node 24 1 1 1
node 25 1 1 3
node 26 1 0 2
node 27 1 0 2
gene 1 1 26 -3.75025 0 1 -3.75025 1
gene 1 1 27 -3.59314 0 2 -3.59314 1
gene 1 2 26 -0.990325 0 3 -0.990325 1
gene 1 2 27 -0.509255 0 4 -0.509255 1
gene 1 3 26 -0.854593 0 5 -0.854593 1
gene 1 3 27 5.19555 0 6 5.19555 1
gene 1 4 26 -1.86556 0 7 -1.86556 1
gene 1 4 27 0.834463 0 8 0.834463 1
gene 1 5 26 -0.144972 0 9 -0.144972 1
gene 1 5 27 0.446004 0 10 0.446004 1
gene 1 6 26 1.36995 0 11 1.36995 1
gene 1 6 27 3.00392 0 12 3.00392 1
gene 1 7 26 -0.182118 0 13 -0.182118 1
gene 1 7 27 4.16885 0 14 4.16885 1
gene 1 8 26 1.29505 0 15 1.29505 1
gene 1 8 27 1.67087 0 16 1.67087 1
gene 1 9 26 -1.08347 0 17 -1.08347 1
gene 1 9 27 -0.0488759 0 18 -0.0488759 1
gene 1 10 26 0.140292 0 19 0.140292 1
gene 1 10 27 1.17256 0 20 1.17256 1
gene 1 11 26 0.896497 0 21 0.896497 1
gene 1 11 27 0.679424 0 22 0.679424 1
gene 1 12 26 3.36354 0 23 3.36354 1
gene 1 12 27 -2.0309 0 24 -2.0309 1
gene 1 13 26 2.10575 0 25 2.10575 1
gene 1 13 27 0.311082 0 26 0.311082 1
gene 1 14 26 0.941354 0 27 0.941354 1
gene 1 14 27 2.8161 0 28 2.8161 1
gene 1 15 26 -0.171243 0 29 -0.171243 1
gene 1 15 27 -0.336375 0 30 -0.336375 1
gene 1 16 26 3.06165 0 31 3.06165 1
gene 1 16 27 -0.564858 0 32 -0.564858 1
gene 1 17 26 -0.996525 0 33 -0.996525 1
gene 1 17 27 1.03112 0 34 1.03112 1
gene 1 18 26 0.557756 0 35 0.557756 1
gene 1 18 27 -4.70167 0 36 -4.70167 1
gene 1 19 26 1.04494 0 37 1.04494 1
gene 1 19 27 1.3486 0 38 1.3486 1
gene 1 20 26 -3.69711 0 39 -3.69711 1
gene 1 20 27 2.97987 0 40 2.97987 1
gene 1 21 26 0.408501 0 41 0.408501 1
gene 1 21 27 0.15286 0 42 0.15286 1
gene 1 22 26 -1.92128 0 43 -1.92128 1
gene 1 22 27 -1.75093 0 44 -1.75093 1
gene 1 23 26 1.60223 0 45 1.60223 1
gene 1 23 27 0.052102 0 46 0.052102 1
gene 1 24 26 0.499572 0 47 0.499572 1
gene 1 24 27 -0.435101 0 48 -0.435101 1
gene 1 25 26 -0.561769 0 49 -0.561769 1
gene 1 25 27 -2.72069 0 50 -2.72069 1
genomeend 0


