/* Organism #8 Fitness: 0.717000 Time: 0 */
genomestart 8
trait 1 0.227879 0.000000 0.464184 0.808273 0.000000 0.810631 1.000000 1.000000 
node 1 1 1 1
node 2 1 1 1
node 3 1 1 1
node 4 1 1 1
node 5 1 1 1
node 6 1 1 1
node 7 1 1 1
node 8 1 1 1
node 9 1 1 1
node 10 1 1 1
node 11 1 1 1
node 12 1 1 1
node 13 1 1 1
node 14 1 1 1
node 15 1 1 1
node 16 1 1 1
node 17 1 1 1
node 18 1 1 1
node 19 1 1 1
node 20 1 1 1
node 21 1 1 1
node 22 1 1 1
node 23 1 1 1
node 24 1 1 1
node 25 1 1 3
node 26 1 0 2
node 27 1 0 2
gene 1 1 26 1.87122 0 1 1.87122 1
gene 1 1 27 1.18519 0 2 1.18519 1
gene 1 2 26 -0.378047 0 3 -0.378047 1
gene 1 2 27 1.80683 0 4 1.80683 1
gene 1 3 26 -1.21004 0 5 -1.21004 1
gene 1 3 27 4.63883 0 6 4.63883 1
gene 1 4 26 -1.82709 0 7 -1.82709 1
gene 1 4 27 0.0979583 0 8 0.0979583 1
gene 1 5 26 -1.4659 0 9 -1.4659 1
gene 1 5 27 -0.152543 0 10 -0.152543 1
gene 1 6 26 4.5958 0 11 4.5958 1
gene 1 6 27 1.10495 0 12 1.10495 1
gene 1 7 26 1.24765 0 13 1.24765 1
gene 1 7 27 -1.14122 0 14 -1.14122 1
gene 1 8 26 -0.776444 0 15 -0.776444 1
gene 1 8 27 -5.2746 0 16 -5.2746 1
gene 1 9 26 -1.47394 0 17 -1.47394 1
gene 1 9 27 -1.33461 0 18 -1.33461 1
gene 1 10 26 -0.180182 0 19 -0.180182 1
gene 1 10 27 -0.753667 0 20 -0.753667 1
gene 1 11 26 -0.0702763 0 21 -0.0702763 1
gene 1 11 27 -0.682613 0 22 -0.682613 1
gene 1 12 26 0.440811 0 23 0.440811 1
gene 1 12 27 0.824675 0 24 0.824675 1
gene 1 13 26 2.59794 0 25 2.59794 1
gene 1 13 27 1.28317 0 26 1.28317 1
gene 1 14 26 -1.63129 0 27 -1.63129 1
gene 1 14 27 0.501526 0 28 0.501526 1
gene 1 15 26 -0.561984 0 29 -0.561984 1
gene 1 15 27 6.18446 0 30 6.18446 1
gene 1 16 26 -0.383897 0 31 -0.383897 1
gene 1 16 27 -0.0691106 0 32 -0.0691106 1
gene 1 17 26 0.591886 0 33 0.591886 1
gene 1 17 27 -3.01489 0 34 -3.01489 1
gene 1 18 26 2.60549 0 35 2.60549 1
gene 1 18 27 1.66966 0 36 1.66966 1
gene 1 19 26 -4.51599 0 37 -4.51599 1
gene 1 19 27 -1.23638 0 38 -1.23638 1
gene 1 20 26 -2.24123 0 39 -2.24123 1
gene 1 20 27 4.82327 0 40 4.82327 1
gene 1 21 26 3.81124 0 41 3.81124 1
gene 1 21 27 0.369884 0 42 0.369884 1
gene 1 22 26 1.52907 0 43 1.52907 1
gene 1 22 27 -0.683227 0 44 -0.683227 1
gene 1 23 26 -1.52585 0 45 -1.52585 1
gene 1 23 27 0.0631801 0 46 0.0631801 1
gene 1 24 26 -0.787613 0 47 -0.787613 1
gene 1 24 27 0.587148 0 48 0.587148 1
gene 1 25 26 -1.52037 0 49 -1.52037 1
gene 1 25 27 -4.28327 0 50 -4.28327 1
genomeend 8


