/* Organism #2 Fitness: 30.420000 Time: 0 */
genomestart 2
trait 1 0.100000 0.000000 0.000000 0.000000 0.000000 0.000000 0.000000 0.000000 
node 1 1 1 1
node 2 1 1 1
node 3 1 1 1
node 4 1 1 1
node 5 1 1 1
node 6 1 1 1
node 7 1 1 1
node 8 1 1 1
node 9 1 1 1
node 10 1 1 1
node 11 1 1 1
node 12 1 1 1
node 13 1 1 1
node 14 1 1 1
node 15 1 1 1
node 16 1 1 1
node 17 1 1 1
node 18 1 1 1
node 19 1 1 1
node 20 1 1 1
node 21 1 1 1
node 22 1 1 1
node 23 1 1 1
node 24 1 1 1
node 25 1 1 3
node 26 1 0 2
node 27 1 0 2
gene 1 1 26 -0.343565 0 1 -0.343565 1
gene 1 1 27 -0.177283 0 2 -0.177283 1
gene 1 2 26 -2.12593 0 3 -2.12593 1
gene 1 2 27 -3.49323 0 4 -3.49323 1
gene 1 3 26 -0.771857 0 5 -0.771857 1
gene 1 3 27 -1.54763 0 6 -1.54763 1
gene 1 4 26 0.0121474 0 7 0.0121474 1
gene 1 4 27 1.46783 0 8 1.46783 1
gene 1 5 26 0.953331 0 9 0.953331 1
gene 1 5 27 -1.46228 0 10 -1.46228 1
gene 1 6 26 4.0846 0 11 4.0846 1
gene 1 6 27 -4.74389 0 12 -4.74389 1
gene 1 7 26 1.95875 0 13 1.95875 1
gene 1 7 27 -0.825088 0 14 -0.825088 1
gene 1 8 26 -1.62769 0 15 -1.62769 1
gene 1 8 27 -0.258691 0 16 -0.258691 1
gene 1 9 26 -0.895887 0 17 -0.895887 1
gene 1 9 27 -0.146243 0 18 -0.146243 1
gene 1 10 26 -0.0745637 0 19 -0.0745637 1
gene 1 10 27 -2.20726 0 20 -2.20726 1
gene 1 11 26 -0.506474 0 21 -0.506474 1
gene 1 11 27 -0.0731989 0 22 -0.0731989 1
gene 1 12 26 -4.18713 0 23 -4.18713 1
gene 1 12 27 0.0233802 0 24 0.0233802 1
gene 1 13 26 -1.42746 0 25 -1.42746 1
gene 1 13 27 0.499408 0 26 0.499408 1
gene 1 14 26 1.32846 0 27 1.32846 1
gene 1 14 27 -1.9153 0 28 -1.9153 1
gene 1 15 26 0.942356 0 29 0.942356 1
gene 1 15 27 -0.342321 0 30 -0.342321 1
gene 1 16 26 -0.088944 0 31 -0.088944 1
gene 1 16 27 -0.266387 0 32 -0.266387 1
gene 1 17 26 -3.26925 0 33 -3.26925 1
gene 1 17 27 0.468026 0 34 0.468026 1
gene 1 18 26 0.31092 0 35 0.31092 1
gene 1 18 27 -0.676172 0 36 -0.676172 1
gene 1 19 26 -0.0297893 0 37 -0.0297893 1
gene 1 19 27 -4.6001 0 38 -4.6001 1
gene 1 20 26 -0.405935 0 39 -0.405935 1
gene 1 20 27 -1.30102 0 40 -1.30102 1
gene 1 21 26 0.294732 0 41 0.294732 1
gene 1 21 27 -2.78593 0 42 -2.78593 1
gene 1 22 26 0.767058 0 43 0.767058 1
gene 1 22 27 1.13938 0 44 1.13938 1
gene 1 23 26 -0.549078 0 45 -0.549078 1
gene 1 23 27 -0.899489 0 46 -0.899489 1
gene 1 24 26 -0.578965 0 47 -0.578965 1
gene 1 24 27 -0.774211 0 48 -0.774211 1
gene 1 25 26 1.77255 0 49 1.77255 1
gene 1 25 27 0.65717 0 50 0.65717 1
genomeend 2


