/* Organism #0 Fitness: 29.450000 Time: 0 */
genomestart 0
trait 1 0.100000 0.000000 0.572187 0.000000 0.769513 0.354107 0.000000 0.000000 
node 1 1 1 1
node 2 1 1 1
node 3 1 1 1
node 4 1 1 1
node 5 1 1 1
node 6 1 1 1
node 7 1 1 1
node 8 1 1 1
node 9 1 1 1
node 10 1 1 1
node 11 1 1 1
node 12 1 1 1
node 13 1 1 1
node 14 1 1 1
node 15 1 1 1
node 16 1 1 1
node 17 1 1 1
node 18 1 1 1
node 19 1 1 1
node 20 1 1 1
node 21 1 1 1
node 22 1 1 1
node 23 1 1 1
node 24 1 1 1
node 25 1 1 3
node 26 1 0 2
node 27 1 0 2
gene 1 1 26 -2.28474 0 1 -2.28474 1
gene 1 1 27 -6.23014 0 2 -6.23014 1
gene 1 2 26 1.41209 0 3 1.41209 1
gene 1 2 27 -0.349858 0 4 -0.349858 1
gene 1 3 26 -0.95819 0 5 -0.95819 1
gene 1 3 27 -1.83666 0 6 -1.83666 1
gene 1 4 26 -0.308381 0 7 -0.308381 1
gene 1 4 27 -0.907725 0 8 -0.907725 1
gene 1 5 26 0.24938 0 9 0.24938 1
gene 1 5 27 3.32374 0 10 3.32374 1
gene 1 6 26 1.9296 0 11 1.9296 1
gene 1 6 27 0.717856 0 12 0.717856 1
gene 1 7 26 -1.28343 0 13 -1.28343 1
gene 1 7 27 0.167424 0 14 0.167424 1
gene 1 8 26 0.0278925 0 15 0.0278925 1
gene 1 8 27 -3.13413 0 16 -3.13413 1
gene 1 9 26 -0.656584 0 17 -0.656584 1
gene 1 9 27 -0.885164 0 18 -0.885164 1
gene 1 10 26 -1.80191 0 19 -1.80191 1
gene 1 10 27 2.17282 0 20 2.17282 1
gene 1 11 26 1.49233 0 21 1.49233 1
gene 1 11 27 0.664222 0 22 0.664222 1
gene 1 12 26 1.6994 0 23 1.6994 1
gene 1 12 27 -1.91794 0 24 -1.91794 1
gene 1 13 26 0.202528 0 25 0.202528 1
gene 1 13 27 1.70649 0 26 1.70649 1
gene 1 14 26 -0.876574 0 27 -0.876574 1
gene 1 14 27 -0.126172 0 28 -0.126172 1
gene 1 15 26 1.63515 0 29 1.63515 1
gene 1 15 27 -2.31203 0 30 -2.31203 1
gene 1 16 26 3.45508 0 31 3.45508 1
gene 1 16 27 3.71636 0 32 3.71636 1
gene 1 17 26 0.438447 0 33 0.438447 1
gene 1 17 27 1.03162 0 34 1.03162 1
gene 1 18 26 4.31998 0 35 4.31998 1
gene 1 18 27 1.83879 0 36 1.83879 1
gene 1 19 26 0.517346 0 37 0.517346 1
gene 1 19 27 0.730762 0 38 0.730762 1
gene 1 20 26 0.433877 0 39 0.433877 1
gene 1 20 27 -0.135721 0 40 -0.135721 1
gene 1 21 26 1.02029 0 41 1.02029 1
gene 1 21 27 0.958287 0 42 0.958287 1
gene 1 22 26 1.16986 0 43 1.16986 1
gene 1 22 27 2.85761 0 44 2.85761 1
gene 1 23 26 -1.05214 0 45 -1.05214 1
gene 1 23 27 -0.120017 0 46 -0.120017 1
gene 1 24 26 -0.0213466 0 47 -0.0213466 1
gene 1 24 27 0.696624 0 48 0.696624 1
gene 1 25 26 2.75846 0 49 2.75846 1
gene 1 25 27 0.248408 0 50 0.248408 1
genomeend 0


