/* Organism #64 Fitness: 27.350000 Time: 0 */
genomestart 64
trait 1 0.000000 0.000000 0.000000 0.118085 0.719123 0.000000 0.000000 0.316451 
node 1 1 1 1
node 2 1 1 1
node 3 1 1 1
node 4 1 1 1
node 5 1 1 1
node 6 1 1 1
node 7 1 1 1
node 8 1 1 1
node 9 1 1 1
node 10 1 1 1
node 11 1 1 1
node 12 1 1 1
node 13 1 1 1
node 14 1 1 1
node 15 1 1 1
node 16 1 1 1
node 17 1 1 1
node 18 1 1 1
node 19 1 1 1
node 20 1 1 1
node 21 1 1 1
node 22 1 1 1
node 23 1 1 1
node 24 1 1 1
node 25 1 1 3
node 26 1 0 2
node 27 1 0 2
gene 1 1 26 0.509082 0 1 0.509082 1
gene 1 1 27 -2.16025 0 2 -2.16025 1
gene 1 2 26 -1.57631 0 3 -1.57631 1
gene 1 2 27 -4.30125 0 4 -4.30125 1
gene 1 3 26 0.0355006 0 5 0.0355006 1
gene 1 3 27 -4.99147 0 6 -4.99147 1
gene 1 4 26 -0.333123 0 7 -0.333123 1
gene 1 4 27 2.12589 0 8 2.12589 1
gene 1 5 26 0.150782 0 9 0.150782 1
gene 1 5 27 -0.413596 0 10 -0.413596 1
gene 1 6 26 -0.832709 0 11 -0.832709 1
gene 1 6 27 -0.985919 0 12 -0.985919 1
gene 1 7 26 1.17368 0 13 1.17368 1
gene 1 7 27 0.38798 0 14 0.38798 1
gene 1 8 26 0.988652 0 15 0.988652 1
gene 1 8 27 -0.844956 0 16 -0.844956 1
gene 1 9 26 -0.130516 0 17 -0.130516 1
gene 1 9 27 5.3676 0 18 5.3676 1
gene 1 10 26 -2.2566 0 19 -2.2566 1
gene 1 10 27 -0.116265 0 20 -0.116265 1
gene 1 11 26 -2.16308 0 21 -2.16308 1
gene 1 11 27 -1.17209 0 22 -1.17209 1
gene 1 12 26 5.34451 0 23 5.34451 1
gene 1 12 27 -0.314255 0 24 -0.314255 1
gene 1 13 26 -0.381441 0 25 -0.381441 1
gene 1 13 27 1.93228 0 26 1.93228 1
gene 1 14 26 0.81309 0 27 0.81309 1
gene 1 14 27 -0.278886 0 28 -0.278886 1
gene 1 15 26 0.638803 0 29 0.638803 1
gene 1 15 27 -0.363641 0 30 -0.363641 1
gene 1 16 26 -0.0676361 0 31 -0.0676361 1
gene 1 16 27 2.40732 0 32 2.40732 1
gene 1 17 26 2.80032 0 33 2.80032 1
gene 1 17 27 -2.62613 0 34 -2.62613 1
gene 1 18 26 2.1105 0 35 2.1105 1
gene 1 18 27 1.53515 0 36 1.53515 1
gene 1 19 26 4.19901 0 37 4.19901 1
gene 1 19 27 3.70033 0 38 3.70033 1
gene 1 20 26 0.611288 0 39 0.611288 1
gene 1 20 27 0.348904 0 40 0.348904 1
gene 1 21 26 3.10166 0 41 3.10166 1
gene 1 21 27 -0.0603666 0 42 -0.0603666 1
gene 1 22 26 -0.247709 0 43 -0.247709 1
gene 1 22 27 -0.00213924 0 44 -0.00213924 1
gene 1 23 26 -0.451153 0 45 -0.451153 1
gene 1 23 27 -0.983533 0 46 -0.983533 1
gene 1 24 26 0.0425604 0 47 0.0425604 1
gene 1 24 27 -0.124122 0 48 -0.124122 1
gene 1 25 26 -0.66535 0 49 -0.66535 1
gene 1 25 27 -0.860145 0 50 -0.860145 1
genomeend 64


