/* Organism #6 Fitness: 31.350000 Time: 0 */
genomestart 6
trait 1 0.100000 0.000000 0.000000 0.000000 0.000000 0.000000 0.933835 0.000000 
node 1 1 1 1
node 2 1 1 1
node 3 1 1 1
node 4 1 1 1
node 5 1 1 1
node 6 1 1 1
node 7 1 1 1
node 8 1 1 1
node 9 1 1 1
node 10 1 1 1
node 11 1 1 1
node 12 1 1 1
node 13 1 1 1
node 14 1 1 1
node 15 1 1 1
node 16 1 1 1
node 17 1 1 1
node 18 1 1 1
node 19 1 1 1
node 20 1 1 1
node 21 1 1 1
node 22 1 1 1
node 23 1 1 1
node 24 1 1 1
node 25 1 1 3
node 26 1 0 2
node 27 1 0 2
gene 1 1 26 -1.6619 0 1 -1.6619 1
gene 1 1 27 -3.38146 0 2 -3.38146 1
gene 1 2 26 -1.54995 0 3 -1.54995 1
gene 1 2 27 5.22215 0 4 5.22215 1
gene 1 3 26 0.963265 0 5 0.963265 1
gene 1 3 27 1.73875 0 6 1.73875 1
gene 1 4 26 1.22262 0 7 1.22262 1
gene 1 4 27 4.1059 0 8 4.1059 1
gene 1 5 26 0.691118 0 9 0.691118 1
gene 1 5 27 5.71485 0 10 5.71485 1
gene 1 6 26 1.64482 0 11 1.64482 1
gene 1 6 27 -0.491884 0 12 -0.491884 1
gene 1 7 26 -0.280975 0 13 -0.280975 1
gene 1 7 27 -1.05453 0 14 -1.05453 1
gene 1 8 26 0.590041 0 15 0.590041 1
gene 1 8 27 2.50828 0 16 2.50828 1
gene 1 9 26 1.02025 0 17 1.02025 1
gene 1 9 27 0.331876 0 18 0.331876 1
gene 1 10 26 -2.13957 0 19 -2.13957 1
gene 1 10 27 1.2037 0 20 1.2037 1
gene 1 11 26 1.40918 0 21 1.40918 1
gene 1 11 27 -0.573431 0 22 -0.573431 1
gene 1 12 26 4.38603 0 23 4.38603 1
gene 1 12 27 0.296329 0 24 0.296329 1
gene 1 13 26 -4.23982 0 25 -4.23982 1
gene 1 13 27 -0.350732 0 26 -0.350732 1
gene 1 14 26 -0.793472 0 27 -0.793472 1
gene 1 14 27 2.70321 0 28 2.70321 1
gene 1 15 26 -2.20869 0 29 -2.20869 1
gene 1 15 27 -1.74537 0 30 -1.74537 1
gene 1 16 26 2.86432 0 31 2.86432 1
gene 1 16 27 -0.135507 0 32 -0.135507 1
gene 1 17 26 -0.760073 0 33 -0.760073 1
gene 1 17 27 -2.70611 0 34 -2.70611 1
gene 1 18 26 -3.53086 0 35 -3.53086 1
gene 1 18 27 0.699252 0 36 0.699252 1
gene 1 19 26 -6.5336 0 37 -6.5336 1
gene 1 19 27 -1.28796 0 38 -1.28796 1
gene 1 20 26 0.714132 0 39 0.714132 1
gene 1 20 27 -0.55421 0 40 -0.55421 1
gene 1 21 26 -2.98649 0 41 -2.98649 1
gene 1 21 27 0.313363 0 42 0.313363 1
gene 1 22 26 0.51979 0 43 0.51979 1
gene 1 22 27 1.26267 0 44 1.26267 1
gene 1 23 26 -1.19629 0 45 -1.19629 1
gene 1 23 27 0.232502 0 46 0.232502 1
gene 1 24 26 1.14128 0 47 1.14128 1
gene 1 24 27 -0.219815 0 48 -0.219815 1
gene 1 25 26 -0.286158 0 49 -0.286158 1
gene 1 25 27 -1.08092 0 50 -1.08092 1
genomeend 6


