/* Organism #2 Fitness: 28.170000 Time: 0 */
genomestart 2
trait 1 0.000000 0.716557 0.000000 0.000000 0.002371 0.922980 0.251144 0.000000 
node 1 1 1 1
node 2 1 1 1
node 3 1 1 1
node 4 1 1 1
node 5 1 1 1
node 6 1 1 1
node 7 1 1 1
node 8 1 1 1
node 9 1 1 1
node 10 1 1 1
node 11 1 1 1
node 12 1 1 1
node 13 1 1 1
node 14 1 1 1
node 15 1 1 1
node 16 1 1 1
node 17 1 1 1
node 18 1 1 1
node 19 1 1 1
node 20 1 1 1
node 21 1 1 1
node 22 1 1 1
node 23 1 1 1
node 24 1 1 1
node 25 1 1 3
node 26 1 0 2
node 27 1 0 2
gene 1 1 26 0.0273654 0 1 0.0273654 1
gene 1 1 27 -3.24537 0 2 -3.24537 1
gene 1 2 26 -0.774663 0 3 -0.774663 1
gene 1 2 27 2.25843 0 4 2.25843 1
gene 1 3 26 1.59902 0 5 1.59902 1
gene 1 3 27 3.64558 0 6 3.64558 1
gene 1 4 26 0.338932 0 7 0.338932 1
gene 1 4 27 -0.237995 0 8 -0.237995 1
gene 1 5 26 -2.39789 0 9 -2.39789 1
gene 1 5 27 1.81032 0 10 1.81032 1
gene 1 6 26 0.858492 0 11 0.858492 1
gene 1 6 27 0.766725 0 12 0.766725 1
gene 1 7 26 0.234492 0 13 0.234492 1
gene 1 7 27 -1.83646 0 14 -1.83646 1
gene 1 8 26 0.893048 0 15 0.893048 1
gene 1 8 27 1.03071 0 16 1.03071 1
gene 1 9 26 1.84009 0 17 1.84009 1
gene 1 9 27 0.788947 0 18 0.788947 1
gene 1 10 26 0.820651 0 19 0.820651 1
gene 1 10 27 0.774999 0 20 0.774999 1
gene 1 11 26 0.239729 0 21 0.239729 1
gene 1 11 27 1.67731 0 22 1.67731 1
gene 1 12 26 -2.25491 0 23 -2.25491 1
gene 1 12 27 -0.879424 0 24 -0.879424 1
gene 1 13 26 0.373615 0 25 0.373615 1
gene 1 13 27 -1.02835 0 26 -1.02835 1
gene 1 14 26 -2.7824 0 27 -2.7824 1
gene 1 14 27 0.63325 0 28 0.63325 1
gene 1 15 26 -1.27763 0 29 -1.27763 1
gene 1 15 27 0.0583717 0 30 0.0583717 1
gene 1 16 26 -1.55081 0 31 -1.55081 1
gene 1 16 27 1.08663 0 32 1.08663 1
gene 1 17 26 -2.9872 0 33 -2.9872 1
gene 1 17 27 -1.76208 0 34 -1.76208 1
gene 1 18 26 0.313864 0 35 0.313864 1
gene 1 18 27 0.219719 0 36 0.219719 1
gene 1 19 26 -2.9212 0 37 -2.9212 1
gene 1 19 27 -1.78202 0 38 -1.78202 1
gene 1 20 26 -3.32824 0 39 -3.32824 1
gene 1 20 27 -0.940132 0 40 -0.940132 1
gene 1 21 26 0.376035 0 41 0.376035 1
gene 1 21 27 -0.240238 0 42 -0.240238 1
gene 1 22 26 -0.939212 0 43 -0.939212 1
gene 1 22 27 -2.16684 0 44 -2.16684 1
gene 1 23 26 1.48344 0 45 1.48344 1
gene 1 23 27 0.64171 0 46 0.64171 1
gene 1 24 26 0.443006 0 47 0.443006 1
gene 1 24 27 -1.23079 0 48 -1.23079 1
gene 1 25 26 -0.734895 0 49 -0.734895 1
gene 1 25 27 0.531546 0 50 0.531546 1
genomeend 2


