/* Organism #0 Fitness: 28.360000 Time: 0 */
genomestart 0
trait 1 0.100000 0.000000 0.000000 0.000000 0.000000 0.000000 0.000000 0.000000 
node 1 1 1 1
node 2 1 1 1
node 3 1 1 1
node 4 1 1 1
node 5 1 1 1
node 6 1 1 1
node 7 1 1 1
node 8 1 1 1
node 9 1 1 1
node 10 1 1 1
node 11 1 1 1
node 12 1 1 1
node 13 1 1 1
node 14 1 1 1
node 15 1 1 1
node 16 1 1 1
node 17 1 1 1
node 18 1 1 1
node 19 1 1 1
node 20 1 1 1
node 21 1 1 1
node 22 1 1 1
node 23 1 1 1
node 24 1 1 1
node 25 1 1 3
node 26 1 0 2
node 27 1 0 2
gene 1 1 26 -2.52972 0 1 -2.52972 1
gene 1 1 27 -0.793198 0 2 -0.793198 1
gene 1 2 26 -0.223393 0 3 -0.223393 1
gene 1 2 27 -1.03992 0 4 -1.03992 1
gene 1 3 26 0.203678 0 5 0.203678 1
gene 1 3 27 -0.599668 0 6 -0.599668 1
gene 1 4 26 0.27475 0 7 0.27475 1
gene 1 4 27 -0.67209 0 8 -0.67209 1
gene 1 5 26 4.12857 0 9 4.12857 1
gene 1 5 27 5.29733 0 10 5.29733 1
gene 1 6 26 -4.26112 0 11 -4.26112 1
gene 1 6 27 0.089277 0 12 0.089277 1
gene 1 7 26 -0.80917 0 13 -0.80917 1
gene 1 7 27 -0.173134 0 14 -0.173134 1
gene 1 8 26 -3.11783 0 15 -3.11783 1
gene 1 8 27 -0.770382 0 16 -0.770382 1
gene 1 9 26 1.31472 0 17 1.31472 1
gene 1 9 27 0.357914 0 18 0.357914 1
gene 1 10 26 -1.38996 0 19 -1.38996 1
gene 1 10 27 0.52769 0 20 0.52769 1
gene 1 11 26 -1.7654 0 21 -1.7654 1
gene 1 11 27 -4.95993 0 22 -4.95993 1
gene 1 12 26 -1.09709 0 23 -1.09709 1
gene 1 12 27 3.8678 0 24 3.8678 1
gene 1 13 26 -1.51297 0 25 -1.51297 1
gene 1 13 27 2.41479 0 26 2.41479 1
gene 1 14 26 -3.64397 0 27 -3.64397 1
gene 1 14 27 -0.86587 0 28 -0.86587 1
gene 1 15 26 4.5383 0 29 4.5383 1
gene 1 15 27 -1.82182 0 30 -1.82182 1
gene 1 16 26 -0.189853 0 31 -0.189853 1
gene 1 16 27 2.6086 0 32 2.6086 1
gene 1 17 26 3.58334 0 33 3.58334 1
gene 1 17 27 2.14796 0 34 2.14796 1
gene 1 18 26 -2.96661 0 35 -2.96661 1
gene 1 18 27 0.28639 0 36 0.28639 1
gene 1 19 26 1.99898 0 37 1.99898 1
gene 1 19 27 0.447834 0 38 0.447834 1
gene 1 20 26 0.601908 0 39 0.601908 1
gene 1 20 27 1.6602 0 40 1.6602 1
gene 1 21 26 4.16002 0 41 4.16002 1
gene 1 21 27 0.326612 0 42 0.326612 1
gene 1 22 26 -1.15505 0 43 -1.15505 1
gene 1 22 27 0.579183 0 44 0.579183 1
gene 1 23 26 -0.787377 0 45 -0.787377 1
gene 1 23 27 -0.310227 0 46 -0.310227 1
gene 1 24 26 -1.19277 0 47 -1.19277 1
gene 1 24 27 -0.141102 0 48 -0.141102 1
gene 1 25 26 0.904044 0 49 0.904044 1
gene 1 25 27 0.905731 0 50 0.905731 1
genomeend 0


