/* Organism #2 Fitness: 29.940000 Time: 0 */
genomestart 2
trait 1 0.000000 0.000000 0.000000 0.257297 0.286968 0.414679 0.269149 0.000000 
node 1 1 1 1
node 2 1 1 1
node 3 1 1 1
node 4 1 1 1
node 5 1 1 1
node 6 1 1 1
node 7 1 1 1
node 8 1 1 1
node 9 1 1 1
node 10 1 1 1
node 11 1 1 1
node 12 1 1 1
node 13 1 1 1
node 14 1 1 1
node 15 1 1 1
node 16 1 1 1
node 17 1 1 1
node 18 1 1 1
node 19 1 1 1
node 20 1 1 1
node 21 1 1 1
node 22 1 1 1
node 23 1 1 1
node 24 1 1 1
node 25 1 1 3
node 26 1 0 2
node 27 1 0 2
gene 1 1 26 -3.20174 0 1 -3.20174 1
gene 1 1 27 -4.07436 0 2 -4.07436 1
gene 1 2 26 -0.911501 0 3 -0.911501 1
gene 1 2 27 6.0288 0 4 6.0288 1
gene 1 3 26 2.06979 0 5 2.06979 1
gene 1 3 27 2.95595 0 6 2.95595 1
gene 1 4 26 -3.53582 0 7 -3.53582 1
gene 1 4 27 5.5409 0 8 5.5409 1
gene 1 5 26 2.7885 0 9 2.7885 1
gene 1 5 27 6.22116 0 10 6.22116 1
gene 1 6 26 -0.329851 0 11 -0.329851 1
gene 1 6 27 -1.21593 0 12 -1.21593 1
gene 1 7 26 -7.42512 0 13 -7.42512 1
gene 1 7 27 -2.44491 0 14 -2.44491 1
gene 1 8 26 -1.5774 0 15 -1.5774 1
gene 1 8 27 -1.47329 0 16 -1.47329 1
gene 1 9 26 -0.257458 0 17 -0.257458 1
gene 1 9 27 0.342985 0 18 0.342985 1
gene 1 10 26 1.42176 0 19 1.42176 1
gene 1 10 27 -0.0750047 0 20 -0.0750047 1
gene 1 11 26 -2.557 0 21 -2.557 1
gene 1 11 27 3.58491 0 22 3.58491 1
gene 1 12 26 2.51852 0 23 2.51852 1
gene 1 12 27 -4.62956 0 24 -4.62956 1
gene 1 13 26 0.875434 0 25 0.875434 1
gene 1 13 27 0.823409 0 26 0.823409 1
gene 1 14 26 -2.24768 0 27 -2.24768 1
gene 1 14 27 3.13521 0 28 3.13521 1
gene 1 15 26 -1.24821 0 29 -1.24821 1
gene 1 15 27 -1.68475 0 30 -1.68475 1
gene 1 16 26 2.10289 0 31 2.10289 1
gene 1 16 27 2.24446 0 32 2.24446 1
gene 1 17 26 -3.00209 0 33 -3.00209 1
gene 1 17 27 2.72417 0 34 2.72417 1
gene 1 18 26 -1.79783 0 35 -1.79783 1
gene 1 18 27 -4.46844 0 36 -4.46844 1
gene 1 19 26 -5.89987 0 37 -5.89987 1
gene 1 19 27 -4.63226 0 38 -4.63226 1
gene 1 20 26 -2.31558 0 39 -2.31558 1
gene 1 20 27 -0.972353 0 40 -0.972353 1
gene 1 21 26 -0.749346 0 41 -0.749346 1
gene 1 21 27 -0.187131 0 42 -0.187131 1
gene 1 22 26 0.335976 0 43 0.335976 1
gene 1 22 27 0.109514 0 44 0.109514 1
gene 1 23 26 -0.550934 0 45 -0.550934 1
gene 1 23 27 -0.288553 0 46 -0.288553 1
gene 1 24 26 2.25548 0 47 2.25548 1
gene 1 24 27 0.758929 0 48 0.758929 1
gene 1 25 26 -1.52924 0 49 -1.52924 1
gene 1 25 27 -0.185061 0 50 -0.185061 1
genomeend 2


