/* Organism #0 Fitness: 29.690000 Time: 0 */
genomestart 0
trait 1 0.317043 0.000000 0.456095 1.000000 0.000000 0.006962 0.307432 0.000000 
node 1 1 1 1
node 2 1 1 1
node 3 1 1 1
node 4 1 1 1
node 5 1 1 1
node 6 1 1 1
node 7 1 1 1
node 8 1 1 1
node 9 1 1 1
node 10 1 1 1
node 11 1 1 1
node 12 1 1 1
node 13 1 1 1
node 14 1 1 1
node 15 1 1 1
node 16 1 1 1
node 17 1 1 1
node 18 1 1 1
node 19 1 1 1
node 20 1 1 1
node 21 1 1 1
node 22 1 1 1
node 23 1 1 1
node 24 1 1 1
node 25 1 1 3
node 26 1 0 2
node 27 1 0 2
gene 1 1 26 -5.50005 0 1 -5.50005 1
gene 1 1 27 1.16486 0 2 1.16486 1
gene 1 2 26 -1.78922 0 3 -1.78922 1
gene 1 2 27 -6.83112 0 4 -6.83112 1
gene 1 3 26 1.18736 0 5 1.18736 1
gene 1 3 27 0.62962 0 6 0.62962 1
gene 1 4 26 0.660293 0 7 0.660293 1
gene 1 4 27 0.841159 0 8 0.841159 1
gene 1 5 26 1.81505 0 9 1.81505 1
gene 1 5 27 5.2339 0 10 5.2339 1
gene 1 6 26 -3.44533 0 11 -3.44533 1
gene 1 6 27 0.496337 0 12 0.496337 1
gene 1 7 26 0.26116 0 13 0.26116 1
gene 1 7 27 -0.88667 0 14 -0.88667 1
gene 1 8 26 -2.63008 0 15 -2.63008 1
gene 1 8 27 2.46778 0 16 2.46778 1
gene 1 9 26 0.567086 0 17 0.567086 1
gene 1 9 27 2.45685 0 18 2.45685 1
gene 1 10 26 1.72443 0 19 1.72443 1
gene 1 10 27 1.32601 0 20 1.32601 1
gene 1 11 26 -0.809045 0 21 -0.809045 1
gene 1 11 27 -1.57597 0 22 -1.57597 1
gene 1 12 26 2.70358 0 23 2.70358 1
gene 1 12 27 5.51024 0 24 5.51024 1
gene 1 13 26 -1.79846 0 25 -1.79846 1
gene 1 13 27 4.88221 0 26 4.88221 1
gene 1 14 26 0.832038 0 27 0.832038 1
gene 1 14 27 2.61554 0 28 2.61554 1
gene 1 15 26 1.21996 0 29 1.21996 1
gene 1 15 27 7.05256 0 30 7.05256 1
gene 1 16 26 2.40392 0 31 2.40392 1
gene 1 16 27 0.820615 0 32 0.820615 1
gene 1 17 26 3.996 0 33 3.996 1
gene 1 17 27 4.97631 0 34 4.97631 1
gene 1 18 26 1.18742 0 35 1.18742 1
gene 1 18 27 -3.73001 0 36 -3.73001 1
gene 1 19 26 -1.40512 0 37 -1.40512 1
gene 1 19 27 1.57842 0 38 1.57842 1
gene 1 20 26 0.419078 0 39 0.419078 1
gene 1 20 27 2.44209 0 40 2.44209 1
gene 1 21 26 -0.815981 0 41 -0.815981 1
gene 1 21 27 -1.23704 0 42 -1.23704 1
gene 1 22 26 0.913046 0 43 0.913046 1
gene 1 22 27 -0.246542 0 44 -0.246542 1
gene 1 23 26 0.324403 0 45 0.324403 1
gene 1 23 27 0.635189 0 46 0.635189 1
gene 1 24 26 0.357132 0 47 0.357132 1
gene 1 24 27 -0.14748 0 48 -0.14748 1
gene 1 25 26 -0.863967 0 49 -0.863967 1
gene 1 25 27 0.655262 0 50 0.655262 1
genomeend 0


