/* Organism #0 Fitness: 35.040000 Time: 0 */
genomestart 0
trait 1 0.100000 0.000000 0.000000 0.898036 0.000000 0.000000 0.491741 0.000000 
node 1 1 1 1
node 2 1 1 1
node 3 1 1 1
node 4 1 1 1
node 5 1 1 1
node 6 1 1 1
node 7 1 1 1
node 8 1 1 1
node 9 1 1 1
node 10 1 1 1
node 11 1 1 1
node 12 1 1 1
node 13 1 1 1
node 14 1 1 1
node 15 1 1 1
node 16 1 1 1
node 17 1 1 1
node 18 1 1 1
node 19 1 1 1
node 20 1 1 1
node 21 1 1 1
node 22 1 1 1
node 23 1 1 1
node 24 1 1 1
node 25 1 1 3
node 26 1 0 2
node 27 1 0 2
gene 1 1 26 0.916744 0 1 0.916744 1
gene 1 1 27 1.89589 0 2 1.89589 1
gene 1 2 26 -3.58419 0 3 -3.58419 1
gene 1 2 27 -2.13554 0 4 -2.13554 1
gene 1 3 26 -1.05455 0 5 -1.05455 1
gene 1 3 27 1.65777 0 6 1.65777 1
gene 1 4 26 0.426115 0 7 0.426115 1
gene 1 4 27 -1.96129 0 8 -1.96129 1
gene 1 5 26 1.56615 0 9 1.56615 1
gene 1 5 27 0.451689 0 10 0.451689 1
gene 1 6 26 3.75759 0 11 3.75759 1
gene 1 6 27 1.15838 0 12 1.15838 1
gene 1 7 26 -0.0489149 0 13 -0.0489149 1
gene 1 7 27 -1.64746 0 14 -1.64746 1
gene 1 8 26 -0.879858 0 15 -0.879858 1
gene 1 8 27 -1.79472 0 16 -1.79472 1
gene 1 9 26 -0.809461 0 17 -0.809461 1
gene 1 9 27 -2.49637 0 18 -2.49637 1
gene 1 10 26 -0.389017 0 19 -0.389017 1
gene 1 10 27 0.683691 0 20 0.683691 1
gene 1 11 26 -0.326954 0 21 -0.326954 1
gene 1 11 27 -1.75235 0 22 -1.75235 1
gene 1 12 26 -3.30636 0 23 -3.30636 1
gene 1 12 27 0.332956 0 24 0.332956 1
gene 1 13 26 -0.669026 0 25 -0.669026 1
gene 1 13 27 -2.97697 0 26 -2.97697 1
gene 1 14 26 -1.62664 0 27 -1.62664 1
gene 1 14 27 -1.9273 0 28 -1.9273 1
gene 1 15 26 -1.43784 0 29 -1.43784 1
gene 1 15 27 -1.18734 0 30 -1.18734 1
gene 1 16 26 1.09388 0 31 1.09388 1
gene 1 16 27 -1.27683 0 32 -1.27683 1
gene 1 17 26 0.184837 0 33 0.184837 1
gene 1 17 27 -4.09278 0 34 -4.09278 1
gene 1 18 26 -0.675145 0 35 -0.675145 1
gene 1 18 27 -0.0737493 0 36 -0.0737493 1
gene 1 19 26 -1.54891 0 37 -1.54891 1
gene 1 19 27 -0.69798 0 38 -0.69798 1
gene 1 20 26 -0.614176 0 39 -0.614176 1
gene 1 20 27 -3.09352 0 40 -3.09352 1
gene 1 21 26 0.407499 0 41 0.407499 1
gene 1 21 27 -1.86071 0 42 -1.86071 1
gene 1 22 26 0.0943531 0 43 0.0943531 1
gene 1 22 27 -0.467574 0 44 -0.467574 1
gene 1 23 26 0.633371 0 45 0.633371 1
gene 1 23 27 1.15711 0 46 1.15711 1
gene 1 24 26 -1.50056 0 47 -1.50056 1
gene 1 24 27 0.789935 0 48 0.789935 1
gene 1 25 26 1.49439 0 49 1.49439 1
gene 1 25 27 -0.380597 0 50 -0.380597 1
genomeend 0


