/* Organism #0 Fitness: 28.060000 Time: 0 */
genomestart 0
trait 1 0.562054 0.072695 1.000000 0.000000 0.156917 0.000000 0.574858 0.000000 
node 1 1 1 1
node 2 1 1 1
node 3 1 1 1
node 4 1 1 1
node 5 1 1 1
node 6 1 1 1
node 7 1 1 1
node 8 1 1 1
node 9 1 1 1
node 10 1 1 1
node 11 1 1 1
node 12 1 1 1
node 13 1 1 1
node 14 1 1 1
node 15 1 1 1
node 16 1 1 1
node 17 1 1 1
node 18 1 1 1
node 19 1 1 1
node 20 1 1 1
node 21 1 1 1
node 22 1 1 1
node 23 1 1 1
node 24 1 1 1
node 25 1 1 3
node 26 1 0 2
node 27 1 0 2
gene 1 1 26 -1.1148 0 1 -1.1148 1
gene 1 1 27 -0.0659502 0 2 -0.0659502 1
gene 1 2 26 -1.24128 0 3 -1.24128 1
gene 1 2 27 -0.0217918 0 4 -0.0217918 1
gene 1 3 26 2.5431 0 5 2.5431 1
gene 1 3 27 -1.27461 0 6 -1.27461 1
gene 1 4 26 0.63788 0 7 0.63788 1
gene 1 4 27 -2.14367 0 8 -2.14367 1
gene 1 5 26 2.70561 0 9 2.70561 1
gene 1 5 27 -0.616124 0 10 -0.616124 1
gene 1 6 26 -4.08477 0 11 -4.08477 1
gene 1 6 27 0.448511 0 12 0.448511 1
gene 1 7 26 -1.55324 0 13 -1.55324 1
gene 1 7 27 -0.185662 0 14 -0.185662 1
gene 1 8 26 -5.91001 0 15 -5.91001 1
gene 1 8 27 -2.0029 0 16 -2.0029 1
gene 1 9 26 -0.587831 0 17 -0.587831 1
gene 1 9 27 0.119952 0 18 0.119952 1
gene 1 10 26 -0.678437 0 19 -0.678437 1
gene 1 10 27 -1.43707 0 20 -1.43707 1
gene 1 11 26 -1.25948 0 21 -1.25948 1
gene 1 11 27 1.41385 0 22 1.41385 1
gene 1 12 26 0.250197 0 23 0.250197 1
gene 1 12 27 -0.0452318 0 24 -0.0452318 1
gene 1 13 26 -0.624652 0 25 -0.624652 1
gene 1 13 27 -1.21207 0 26 -1.21207 1
gene 1 14 26 1.2064 0 27 1.2064 1
gene 1 14 27 0.0653962 0 28 0.0653962 1
gene 1 15 26 -0.773878 0 29 -0.773878 1
gene 1 15 27 0.889312 0 30 0.889312 1
gene 1 16 26 1.68883 0 31 1.68883 1
gene 1 16 27 -0.975472 0 32 -0.975472 1
gene 1 17 26 2.67936 0 33 2.67936 1
gene 1 17 27 2.03702 0 34 2.03702 1
gene 1 18 26 2.04829 0 35 2.04829 1
gene 1 18 27 2.58772 0 36 2.58772 1
gene 1 19 26 -1.08113 0 37 -1.08113 1
gene 1 19 27 3.46056 0 38 3.46056 1
gene 1 20 26 -0.320039 0 39 -0.320039 1
gene 1 20 27 5.50713 0 40 5.50713 1
gene 1 21 26 3.54079 0 41 3.54079 1
gene 1 21 27 0.581496 0 42 0.581496 1
gene 1 22 26 -0.854981 0 43 -0.854981 1
gene 1 22 27 -0.0955892 0 44 -0.0955892 1
gene 1 23 26 -0.0986215 0 45 -0.0986215 1
gene 1 23 27 0.0752125 0 46 0.0752125 1
gene 1 24 26 0.416279 0 47 0.416279 1
gene 1 24 27 -0.334833 0 48 -0.334833 1
gene 1 25 26 1.14303 0 49 1.14303 1
gene 1 25 27 1.2189 0 50 1.2189 1
genomeend 0


